{
  "feature_names": [
    "intercept",
    "alpha_raw",
    "sqrt_alpha",
    "log1p_alpha",
    "mean_25",
    "mean_101",
    "mean_501"
  ],
  "selected_lambda": 0.0,
  "weights_by_lambda": {
    "0": [
      0.6790947450493608,
      -0.5503750243077532,
      0.7620919960097812,
      -0.040519689708602515,
      -0.18927323961271425,
      11.800013454843883,
      -1.7794475728187475
    ],
    "0.0001": [
      0.6790947450282552,
      -0.5503750230559684,
      0.7620919928221511,
      -0.04051968809379186,
      -0.18927314941756215,
      11.800013278076934,
      -1.7794474777724851
    ],
    "0.01": [
      0.6790947429388318,
      -0.5503748991290214,
      0.7620916772475748,
      -0.040519528228539915,
      -0.1892642201208919,
      11.799995778191334,
      -1.7794380682145563
    ],
    "1": [
      0.6790945344143208,
      -0.5503625065458239,
      0.7620601251155348,
      -0.0405035430846271,
      -0.1883714903653815,
      11.798246162002899,
      -1.7784973130226474
    ],
    "100": [
      0.6790777700108624,
      -0.549124336474877,
      0.7589571170650133,
      -0.03891872985631705,
      -0.10105529450866683,
      11.626929975882975,
      -1.6863859493811384
    ],
    "1e-06": [
      0.6790947450491497,
      -0.550375024295237,
      0.7620919959779046,
      -0.04051968969245,
      -0.18927323871077056,
      11.800013453076232,
      -1.7794475718682967
    ]
  }
}