{
  "feature_names": [
    "intercept",
    "alpha_raw",
    "sqrt_alpha",
    "log1p_alpha",
    "mean_25",
    "mean_101",
    "mean_501"
  ],
  "selected_lambda": 0.0,
  "weights_by_lambda": {
    "0": [
      0.6463379238891179,
      -0.49960795543979797,
      0.8179153614376544,
      -0.21959249661450034,
      -0.07953585672909952,
      11.71025059691765,
      -1.3790222411814055
    ],
    "0.0001": [
      0.646337924149272,
      -0.49960795343025627,
      0.8179153468180601,
      -0.21959248102259882,
      -0.07953552799348598,
      11.710249985713597,
      -1.3790219339193286
    ],
    "0.01": [
      0.6463379499048258,
      -0.4996077544835163,
      0.8179138994872808,
      -0.2195909374334285,
      -0.07950298342642709,
      11.710189476966798,
      -1.3789915152016752
    ],
    "1": [
      0.6463405286992535,
      -0.49958784360879543,
      0.8177692514553746,
      -0.21943664938692461,
      -0.07625113470612055,
      11.704143177881434,
      -1.3759519340707798
    ],
    "100": [
      0.6466282774506048,
      -0.49744453127884547,
      0.8041003300460827,
      -0.2046823127682265,
      0.22472362345570535,
      11.142016973621422,
      -1.0932887749307676
    ],
    "1e-06": [
      0.6463379238917196,
      -0.4996079554197052,
      0.8179153612914546,
      -0.21959249645856943,
      -0.07953585344174423,
      11.710250590805613,
      -1.3790222381087873
    ]
  }
}